<?xml version="1.0"?>
<opencv_storage>
<stage7>
  <maxWeakCount>5</maxWeakCount>
  <stageThreshold>-3.4539878368377686e-01</stageThreshold>
  <weakClassifiers>
    <_>
      <internalNodes>
        0 -1 103691 1.7289586365222931e-02</internalNodes>
      <leafValues>
        -5.0769233703613281e-01 8.0000001192092896e-01</leafValues></_>
    <_>
      <internalNodes>
        0 -1 44642 -6.5557479858398438e-02</internalNodes>
      <leafValues>
        1. -2.1636874973773956e-01</leafValues></_>
    <_>
      <internalNodes>
        0 -1 60133 1.7735313158482313e-03</internalNodes>
      <leafValues>
        3.0342036485671997e-01 -8.3965188264846802e-01</leafValues></_>
    <_>
      <internalNodes>
        0 -1 117517 -1.0422607883810997e-02</internalNodes>
      <leafValues>
        7.7496707439422607e-01 -2.9871875047683716e-01</leafValues></_>
    <_>
      <internalNodes>
        0 -1 127019 -3.1613726168870926e-03</internalNodes>
      <leafValues>
        3.7396067380905151e-01 -5.8196693658828735e-01</leafValues></_></weakClassifiers></stage7>
</opencv_storage>
