<?xml version="1.0"?>
<opencv_storage>
<stage3>
  <maxWeakCount>5</maxWeakCount>
  <stageThreshold>-7.0430642366409302e-01</stageThreshold>
  <weakClassifiers>
    <_>
      <internalNodes>
        0 -1 111022 1.0795237030833960e-03</internalNodes>
      <leafValues>
        -6.4150941371917725e-01 4.0909090638160706e-01</leafValues></_>
    <_>
      <internalNodes>
        0 -1 113894 -8.1021748483181000e-03</internalNodes>
      <leafValues>
        5.5050557851791382e-01 -4.8636996746063232e-01</leafValues></_>
    <_>
      <internalNodes>
        0 -1 48915 -4.9316398799419403e-02</internalNodes>
      <leafValues>
        -8.8512074947357178e-01 2.8298708796501160e-01</leafValues></_>
    <_>
      <internalNodes>
        0 -1 161628 1.0849970858544111e-03</internalNodes>
      <leafValues>
        -3.6804899573326111e-01 7.5402784347534180e-01</leafValues></_>
    <_>
      <internalNodes>
        0 -1 3409 -8.6287688463926315e-04</internalNodes>
      <leafValues>
        6.6451913118362427e-01 -4.1073316335678101e-01</leafValues></_></weakClassifiers></stage3>
</opencv_storage>
