<?xml version="1.0"?>
<opencv_storage>
<stage2>
  <maxWeakCount>57</maxWeakCount>
  <stageThreshold>-1.1810146570205688e+00</stageThreshold>
  <weakClassifiers>
    <_>
      <internalNodes>
        0 -1 70959 -2.2727426141500473e-02</internalNodes>
      <leafValues>
        -4.0873014926910400e-01 2.0270269364118576e-02</leafValues></_>
    <_>
      <internalNodes>
        0 -1 98876 -4.4241771101951599e-02</internalNodes>
      <leafValues>
        4.4579687714576721e-01 -9.5505401492118835e-02</leafValues></_>
    <_>
      <internalNodes>
        0 -1 52225 -1.5714339911937714e-02</internalNodes>
      <leafValues>
        3.0336543917655945e-01 -1.3192559778690338e-01</leafValues></_>
    <_>
      <internalNodes>
        0 -1 863 -4.5158183574676514e-01</internalNodes>
      <leafValues>
        -7.3410153388977051e-01 5.1160883158445358e-02</leafValues></_>
    <_>
      <internalNodes>
        0 -1 122609 -3.6548808217048645e-02</internalNodes>
      <leafValues>
        5.4221236705780029e-01 -8.6300961673259735e-02</leafValues></_>
    <_>
      <internalNodes>
        0 -1 117155 2.1594971418380737e-02</internalNodes>
      <leafValues>
        -1.0764127224683762e-01 3.5807827115058899e-01</leafValues></_>
    <_>
      <internalNodes>
        0 -1 49670 1.2937549501657486e-02</internalNodes>
      <leafValues>
        -1.2013176828622818e-01 2.7361580729484558e-01</leafValues></_>
    <_>
      <internalNodes>
        0 -1 7976 2.9509231448173523e-01</internalNodes>
      <leafValues>
        5.1288191229104996e-02 -6.4215451478958130e-01</leafValues></_>
    <_>
      <internalNodes>
        0 -1 118627 -2.2021336480975151e-03</internalNodes>
      <leafValues>
        4.0761969983577728e-02 -7.5771331787109375e-01</leafValues></_>
    <_>
      <internalNodes>
        0 -1 138081 -1.1736200191080570e-02</internalNodes>
      <leafValues>
        -5.1834678649902344e-01 6.8139612674713135e-02</leafValues></_>
    <_>
      <internalNodes>
        0 -1 91488 4.6052560210227966e-02</internalNodes>
      <leafValues>
        -6.1854355037212372e-02 4.0018653869628906e-01</leafValues></_>
    <_>
      <internalNodes>
        0 -1 116352 9.0126484632492065e-02</internalNodes>
      <leafValues>
        -7.7097982168197632e-02 3.8712945580482483e-01</leafValues></_>
    <_>
      <internalNodes>
        0 -1 100075 1.9241210073232651e-02</internalNodes>
      <leafValues>
        -7.6947927474975586e-02 4.0229612588882446e-01</leafValues></_>
    <_>
      <internalNodes>
        0 -1 80272 1.0520614683628082e-01</internalNodes>
      <leafValues>
        4.6335976570844650e-02 -6.7775076627731323e-01</leafValues></_>
    <_>
      <internalNodes>
        0 -1 13175 4.1547268629074097e-02</internalNodes>
      <leafValues>
        -7.1174636483192444e-02 4.3245241045951843e-01</leafValues></_>
    <_>
      <internalNodes>
        0 -1 70220 -2.0255282521247864e-02</internalNodes>
      <leafValues>
        3.1265178322792053e-01 -1.1761987954378128e-01</leafValues></_>
    <_>
      <internalNodes>
        0 -1 158872 -8.0168088898062706e-03</internalNodes>
      <leafValues>
        3.9845988154411316e-01 -7.1361370384693146e-02</leafValues></_>
    <_>
      <internalNodes>
        0 -1 152140 -3.8220332935452461e-03</internalNodes>
      <leafValues>
        3.1802290678024292e-01 -8.8141679763793945e-02</leafValues></_>
    <_>
      <internalNodes>
        0 -1 131976 1.5683081001043320e-02</internalNodes>
      <leafValues>
        -8.3118751645088196e-02 3.5262167453765869e-01</leafValues></_>
    <_>
      <internalNodes>
        0 -1 103867 2.7249690145254135e-02</internalNodes>
      <leafValues>
        -8.9644692838191986e-02 2.9377311468124390e-01</leafValues></_>
    <_>
      <internalNodes>
        0 -1 132318 2.2130745928734541e-03</internalNodes>
      <leafValues>
        5.4808806627988815e-02 -5.9526997804641724e-01</leafValues></_>
    <_>
      <internalNodes>
        0 -1 122197 1.9325222820043564e-03</internalNodes>
      <leafValues>
        -1.2176647782325745e-01 2.4751363694667816e-01</leafValues></_>
    <_>
      <internalNodes>
        0 -1 109124 -3.4339539706707001e-03</internalNodes>
      <leafValues>
        -8.8097798824310303e-01 3.3769048750400543e-02</leafValues></_>
    <_>
      <internalNodes>
        0 -1 96788 -1.4993847580626607e-03</internalNodes>
      <leafValues>
        2.1052582189440727e-02 -8.8623559474945068e-01</leafValues></_>
    <_>
      <internalNodes>
        0 -1 13237 -4.2961765080690384e-02</internalNodes>
      <leafValues>
        -5.4965877532958984e-01 3.7973042577505112e-02</leafValues></_>
    <_>
      <internalNodes>
        0 -1 12877 5.3573332726955414e-02</internalNodes>
      <leafValues>
        2.4397151544690132e-02 -7.3888742923736572e-01</leafValues></_>
    <_>
      <internalNodes>
        0 -1 86363 -2.2239841520786285e-02</internalNodes>
      <leafValues>
        4.0583440661430359e-01 -7.3750466108322144e-02</leafValues></_>
    <_>
      <internalNodes>
        0 -1 76955 2.8324555605649948e-02</internalNodes>
      <leafValues>
        -8.0533854663372040e-02 4.0286025404930115e-01</leafValues></_>
    <_>
      <internalNodes>
        0 -1 118252 2.4024290032684803e-03</internalNodes>
      <leafValues>
        4.6719007194042206e-02 -6.9284921884536743e-01</leafValues></_>
    <_>
      <internalNodes>
        0 -1 125490 2.1387586370110512e-02</internalNodes>
      <leafValues>
        -6.0204770416021347e-02 5.5395311117172241e-01</leafValues></_>
    <_>
      <internalNodes>
        0 -1 21651 8.2875378429889679e-03</internalNodes>
      <leafValues>
        -2.7816267684102058e-02 7.1779483556747437e-01</leafValues></_>
    <_>
      <internalNodes>
        0 -1 155340 2.4585612118244171e-03</internalNodes>
      <leafValues>
        -1.2870217859745026e-01 1.9741119444370270e-01</leafValues></_>
    <_>
      <internalNodes>
        0 -1 131519 2.6453160680830479e-03</internalNodes>
      <leafValues>
        3.6748137325048447e-02 -6.8573671579360962e-01</leafValues></_>
    <_>
      <internalNodes>
        0 -1 111882 -6.4668646082282066e-03</internalNodes>
      <leafValues>
        2.4939399957656860e-01 -1.0617448389530182e-01</leafValues></_>
    <_>
      <internalNodes>
        0 -1 141609 -1.1753547936677933e-02</internalNodes>
      <leafValues>
        5.8660560846328735e-01 -4.1265524923801422e-02</leafValues></_>
    <_>
      <internalNodes>
        0 -1 124678 -3.6005731672048569e-03</internalNodes>
      <leafValues>
        -8.5969626903533936e-01 3.2551471143960953e-02</leafValues></_>
    <_>
      <internalNodes>
        0 -1 38210 -3.6462493240833282e-02</internalNodes>
      <leafValues>
        2.9480671882629395e-01 -8.9643895626068115e-02</leafValues></_>
    <_>
      <internalNodes>
        0 -1 130171 -1.7634597606956959e-03</internalNodes>
      <leafValues>
        3.3132400363683701e-02 -8.1629508733749390e-01</leafValues></_>
    <_>
      <internalNodes>
        0 -1 5059 -2.9234919697046280e-02</internalNodes>
      <leafValues>
        -1.1257969588041306e-01 2.6931959390640259e-01</leafValues></_>
    <_>
      <internalNodes>
        0 -1 4029 1.0857364162802696e-02</internalNodes>
      <leafValues>
        -7.7357940375804901e-02 3.2695332169532776e-01</leafValues></_>
    <_>
      <internalNodes>
        0 -1 160265 2.6629356667399406e-02</internalNodes>
      <leafValues>
        -5.3509622812271118e-02 4.7016939520835876e-01</leafValues></_>
    <_>
      <internalNodes>
        0 -1 80522 -2.6458776555955410e-03</internalNodes>
      <leafValues>
        2.4683682620525360e-01 -1.0273125767707825e-01</leafValues></_>
    <_>
      <internalNodes>
        0 -1 106481 2.6327667292207479e-03</internalNodes>
      <leafValues>
        -1.2572726607322693e-01 2.1563664078712463e-01</leafValues></_>
    <_>
      <internalNodes>
        0 -1 85780 2.4806177243590355e-03</internalNodes>
      <leafValues>
        4.1913613677024841e-02 -6.5881878137588501e-01</leafValues></_>
    <_>
      <internalNodes>
        0 -1 121211 -4.2747877538204193e-02</internalNodes>
      <leafValues>
        -5.5534821748733521e-01 3.8796212524175644e-02</leafValues></_>
    <_>
      <internalNodes>
        0 -1 142045 -2.2922705858945847e-02</internalNodes>
      <leafValues>
        3.0479943752288818e-01 -9.7631536424160004e-02</leafValues></_>
    <_>
      <internalNodes>
        0 -1 157531 -1.2383924797177315e-02</internalNodes>
      <leafValues>
        3.5467585921287537e-01 -6.4542919397354126e-02</leafValues></_>
    <_>
      <internalNodes>
        0 -1 144714 -1.1134044034406543e-03</internalNodes>
      <leafValues>
        -3.9757400751113892e-01 6.3775636255741119e-02</leafValues></_>
    <_>
      <internalNodes>
        0 -1 34600 -2.7473255991935730e-02</internalNodes>
      <leafValues>
        6.9486516714096069e-01 -3.8764782249927521e-02</leafValues></_>
    <_>
      <internalNodes>
        0 -1 6023 -2.2225476801395416e-02</internalNodes>
      <leafValues>
        4.4754725694656372e-01 -5.4667513817548752e-02</leafValues></_>
    <_>
      <internalNodes>
        0 -1 18028 3.9418125525116920e-03</internalNodes>
      <leafValues>
        5.6761346757411957e-02 -4.8252886533737183e-01</leafValues></_>
    <_>
      <internalNodes>
        0 -1 24484 -1.1821594089269638e-03</internalNodes>
      <leafValues>
        1.9152934849262238e-01 -1.2666523456573486e-01</leafValues></_>
    <_>
      <internalNodes>
        0 -1 159719 -1.8088044598698616e-03</internalNodes>
      <leafValues>
        3.6612622439861298e-02 -6.7420268058776855e-01</leafValues></_>
    <_>
      <internalNodes>
        0 -1 127288 2.1646334789693356e-03</internalNodes>
      <leafValues>
        3.5184841603040695e-02 -6.0154396295547485e-01</leafValues></_>
    <_>
      <internalNodes>
        0 -1 81173 7.1157082915306091e-02</internalNodes>
      <leafValues>
        2.3597797378897667e-02 -8.5206520557403564e-01</leafValues></_>
    <_>
      <internalNodes>
        0 -1 35295 2.7774176001548767e-01</internalNodes>
      <leafValues>
        3.0357753857970238e-02 -6.4850777387619019e-01</leafValues></_>
    <_>
      <internalNodes>
        0 -1 82385 -2.9417715966701508e-02</internalNodes>
      <leafValues>
        3.2998418807983398e-01 -7.5546503067016602e-02</leafValues></_></weakClassifiers></stage2>
</opencv_storage>
