<?xml version="1.0"?>
<opencv_storage>
<stage8>
  <maxWeakCount>5</maxWeakCount>
  <stageThreshold>-6.4712047576904297e-01</stageThreshold>
  <weakClassifiers>
    <_>
      <internalNodes>
        0 -1 82325 2.8853749856352806e-02</internalNodes>
      <leafValues>
        -4.4927537441253662e-01 1.</leafValues></_>
    <_>
      <internalNodes>
        0 -1 61473 -1.2811486609280109e-02</internalNodes>
      <leafValues>
        5.3734534978866577e-01 -3.8517311215400696e-01</leafValues></_>
    <_>
      <internalNodes>
        0 -1 12938 -1.6762729734182358e-02</internalNodes>
      <leafValues>
        -8.1669723987579346e-01 3.1540477275848389e-01</leafValues></_>
    <_>
      <internalNodes>
        0 -1 52053 -1.4571060426533222e-02</internalNodes>
      <leafValues>
        -4.4052660465240479e-01 5.1242417097091675e-01</leafValues></_>
    <_>
      <internalNodes>
        0 -1 146432 -3.6367885768413544e-03</internalNodes>
      <leafValues>
        6.3662987947463989e-01 -4.3091741204261780e-01</leafValues></_></weakClassifiers></stage8>
</opencv_storage>
